digraph Tree {
node [shape=box, style="filled, rounded", color="black", fontname=helvetica] ;
edge [fontname=helvetica] ;
0 [label=<X<SUB>1</SUB> &le; 0.498<br/>gini = 0.498<br/>samples = 30<br/>value = [14, 16]>, fillcolor="#e6f3fc"] ;
1 [label=<X<SUB>1</SUB> &le; 0.419<br/>gini = 0.133<br/>samples = 14<br/>value = [13, 1]>, fillcolor="#e78b48"] ;
0 -> 1 [labeldistance=2.5, labelangle=45, headlabel="True"] ;
2 [label=<gini = 0.0<br/>samples = 11<br/>value = [11, 0]>, fillcolor="#e58139"] ;
1 -> 2 ;
3 [label=<X<SUB>0</SUB> &le; 0.575<br/>gini = 0.444<br/>samples = 3<br/>value = [2, 1]>, fillcolor="#f2c09c"] ;
1 -> 3 ;
4 [label=<gini = 0.0<br/>samples = 2<br/>value = [2, 0]>, fillcolor="#e58139"] ;
3 -> 4 ;
5 [label=<gini = 0.0<br/>samples = 1<br/>value = [0, 1]>, fillcolor="#399de5"] ;
3 -> 5 ;
6 [label=<X<SUB>0</SUB> &le; 0.26<br/>gini = 0.117<br/>samples = 16<br/>value = [1, 15]>, fillcolor="#46a4e7"] ;
0 -> 6 [labeldistance=2.5, labelangle=-45, headlabel="False"] ;
7 [label=<X<SUB>1</SUB> &le; 0.689<br/>gini = 0.5<br/>samples = 2<br/>value = [1, 1]>, fillcolor="#ffffff"] ;
6 -> 7 ;
8 [label=<gini = 0.0<br/>samples = 1<br/>value = [1, 0]>, fillcolor="#e58139"] ;
7 -> 8 ;
9 [label=<gini = 0.0<br/>samples = 1<br/>value = [0, 1]>, fillcolor="#399de5"] ;
7 -> 9 ;
10 [label=<gini = 0.0<br/>samples = 14<br/>value = [0, 14]>, fillcolor="#399de5"] ;
6 -> 10 ;
}